digraph Tree {
node [shape=box] ;
0 [label="X[0] <= 0.077\ngini = 0.359\nsamples = 145\nvalue = [111, 34]"] ;
1 [label="X[10] <= -1.225\ngini = 0.467\nsamples = 78\nvalue = [49, 29]"] ;
0 -> 1 [labeldistance=2.5, labelangle=45, headlabel="True"] ;
2 [label="gini = 0.0\nsamples = 4\nvalue = [0, 4]"] ;
1 -> 2 ;
3 [label="X[2] <= -0.023\ngini = 0.447\nsamples = 74\nvalue = [49, 25]"] ;
1 -> 3 ;
4 [label="X[11] <= -0.263\ngini = 0.499\nsamples = 38\nvalue = [20, 18]"] ;
3 -> 4 ;
5 [label="X[2] <= -0.169\ngini = 0.375\nsamples = 16\nvalue = [12, 4]"] ;
4 -> 5 ;
6 [label="X[11] <= -1.147\ngini = 0.245\nsamples = 14\nvalue = [12, 2]"] ;
5 -> 6 ;
7 [label="gini = 0.0\nsamples = 1\nvalue = [0, 1]"] ;
6 -> 7 ;
8 [label="X[9] <= -1.274\ngini = 0.142\nsamples = 13\nvalue = [12, 1]"] ;
6 -> 8 ;
9 [label="gini = 0.0\nsamples = 1\nvalue = [0, 1]"] ;
8 -> 9 ;
10 [label="gini = 0.0\nsamples = 12\nvalue = [12, 0]"] ;
8 -> 10 ;
11 [label="gini = 0.0\nsamples = 2\nvalue = [0, 2]"] ;
5 -> 11 ;
12 [label="X[5] <= -0.251\ngini = 0.463\nsamples = 22\nvalue = [8, 14]"] ;
4 -> 12 ;
13 [label="X[11] <= -0.081\ngini = 0.375\nsamples = 8\nvalue = [6, 2]"] ;
12 -> 13 ;
14 [label="X[5] <= -1.01\ngini = 0.444\nsamples = 3\nvalue = [1, 2]"] ;
13 -> 14 ;
15 [label="gini = 0.0\nsamples = 1\nvalue = [1, 0]"] ;
14 -> 15 ;
16 [label="gini = 0.0\nsamples = 2\nvalue = [0, 2]"] ;
14 -> 16 ;
17 [label="gini = 0.0\nsamples = 5\nvalue = [5, 0]"] ;
13 -> 17 ;
18 [label="X[6] <= 2.001\ngini = 0.245\nsamples = 14\nvalue = [2, 12]"] ;
12 -> 18 ;
19 [label="X[10] <= -0.559\ngini = 0.142\nsamples = 13\nvalue = [1, 12]"] ;
18 -> 19 ;
20 [label="X[7] <= 0.938\ngini = 0.5\nsamples = 2\nvalue = [1, 1]"] ;
19 -> 20 ;
21 [label="gini = 0.0\nsamples = 1\nvalue = [1, 0]"] ;
20 -> 21 ;
22 [label="gini = 0.0\nsamples = 1\nvalue = [0, 1]"] ;
20 -> 22 ;
23 [label="gini = 0.0\nsamples = 11\nvalue = [0, 11]"] ;
19 -> 23 ;
24 [label="gini = 0.0\nsamples = 1\nvalue = [1, 0]"] ;
18 -> 24 ;
25 [label="X[9] <= -0.844\ngini = 0.313\nsamples = 36\nvalue = [29, 7]"] ;
3 -> 25 ;
26 [label="X[5] <= -0.904\ngini = 0.5\nsamples = 8\nvalue = [4, 4]"] ;
25 -> 26 ;
27 [label="gini = 0.0\nsamples = 3\nvalue = [3, 0]"] ;
26 -> 27 ;
28 [label="X[6] <= 0.913\ngini = 0.32\nsamples = 5\nvalue = [1, 4]"] ;
26 -> 28 ;
29 [label="gini = 0.0\nsamples = 4\nvalue = [0, 4]"] ;
28 -> 29 ;
30 [label="gini = 0.0\nsamples = 1\nvalue = [1, 0]"] ;
28 -> 30 ;
31 [label="X[4] <= 2.107\ngini = 0.191\nsamples = 28\nvalue = [25, 3]"] ;
25 -> 31 ;
32 [label="X[0] <= -0.301\ngini = 0.137\nsamples = 27\nvalue = [25, 2]"] ;
31 -> 32 ;
33 [label="X[9] <= 1.411\ngini = 0.077\nsamples = 25\nvalue = [24, 1]"] ;
32 -> 33 ;
34 [label="gini = 0.0\nsamples = 23\nvalue = [23, 0]"] ;
33 -> 34 ;
35 [label="X[1] <= 1.011\ngini = 0.5\nsamples = 2\nvalue = [1, 1]"] ;
33 -> 35 ;
36 [label="gini = 0.0\nsamples = 1\nvalue = [0, 1]"] ;
35 -> 36 ;
37 [label="gini = 0.0\nsamples = 1\nvalue = [1, 0]"] ;
35 -> 37 ;
38 [label="X[6] <= 0.08\ngini = 0.5\nsamples = 2\nvalue = [1, 1]"] ;
32 -> 38 ;
39 [label="gini = 0.0\nsamples = 1\nvalue = [0, 1]"] ;
38 -> 39 ;
40 [label="gini = 0.0\nsamples = 1\nvalue = [1, 0]"] ;
38 -> 40 ;
41 [label="gini = 0.0\nsamples = 1\nvalue = [0, 1]"] ;
31 -> 41 ;
42 [label="X[10] <= -1.669\ngini = 0.138\nsamples = 67\nvalue = [62, 5]"] ;
0 -> 42 [labeldistance=2.5, labelangle=-45, headlabel="False"] ;
43 [label="gini = 0.0\nsamples = 1\nvalue = [0, 1]"] ;
42 -> 43 ;
44 [label="X[3] <= -1.581\ngini = 0.114\nsamples = 66\nvalue = [62, 4]"] ;
42 -> 44 ;
45 [label="X[12] <= -0.231\ngini = 0.5\nsamples = 2\nvalue = [1, 1]"] ;
44 -> 45 ;
46 [label="gini = 0.0\nsamples = 1\nvalue = [1, 0]"] ;
45 -> 46 ;
47 [label="gini = 0.0\nsamples = 1\nvalue = [0, 1]"] ;
45 -> 47 ;
48 [label="X[5] <= 0.927\ngini = 0.089\nsamples = 64\nvalue = [61, 3]"] ;
44 -> 48 ;
49 [label="gini = 0.0\nsamples = 48\nvalue = [48, 0]"] ;
48 -> 49 ;
50 [label="X[9] <= -0.486\ngini = 0.305\nsamples = 16\nvalue = [13, 3]"] ;
48 -> 50 ;
51 [label="gini = 0.0\nsamples = 1\nvalue = [0, 1]"] ;
50 -> 51 ;
52 [label="X[8] <= -0.763\ngini = 0.231\nsamples = 15\nvalue = [13, 2]"] ;
50 -> 52 ;
53 [label="gini = 0.0\nsamples = 1\nvalue = [0, 1]"] ;
52 -> 53 ;
54 [label="X[10] <= 0.071\ngini = 0.133\nsamples = 14\nvalue = [13, 1]"] ;
52 -> 54 ;
55 [label="gini = 0.0\nsamples = 1\nvalue = [0, 1]"] ;
54 -> 55 ;
56 [label="gini = 0.0\nsamples = 13\nvalue = [13, 0]"] ;
54 -> 56 ;
}
