digraph Tree {
node [shape=box] ;
0 [label="X[0] <= -0.192\ngini = 0.373\nsamples = 145\nvalue = [109, 36]"] ;
1 [label="X[11] <= -0.76\ngini = 0.48\nsamples = 75\nvalue = [45, 30]"] ;
0 -> 1 [labeldistance=2.5, labelangle=45, headlabel="True"] ;
2 [label="gini = 0.0\nsamples = 12\nvalue = [12, 0]"] ;
1 -> 2 ;
3 [label="X[5] <= -0.246\ngini = 0.499\nsamples = 63\nvalue = [33, 30]"] ;
1 -> 3 ;
4 [label="X[12] <= 0.356\ngini = 0.422\nsamples = 33\nvalue = [23, 10]"] ;
3 -> 4 ;
5 [label="X[9] <= 0.36\ngini = 0.269\nsamples = 25\nvalue = [21, 4]"] ;
4 -> 5 ;
6 [label="X[10] <= -0.582\ngini = 0.095\nsamples = 20\nvalue = [19, 1]"] ;
5 -> 6 ;
7 [label="gini = 0.0\nsamples = 15\nvalue = [15, 0]"] ;
6 -> 7 ;
8 [label="gini = 0.32\nsamples = 5\nvalue = [4, 1]"] ;
6 -> 8 ;
9 [label="gini = 0.48\nsamples = 5\nvalue = [2, 3]"] ;
5 -> 9 ;
10 [label="gini = 0.375\nsamples = 8\nvalue = [2, 6]"] ;
4 -> 10 ;
11 [label="X[9] <= 0.138\ngini = 0.444\nsamples = 30\nvalue = [10, 20]"] ;
3 -> 11 ;
12 [label="X[0] <= -0.622\ngini = 0.198\nsamples = 18\nvalue = [2, 16]"] ;
11 -> 12 ;
13 [label="gini = 0.0\nsamples = 13\nvalue = [0, 13]"] ;
12 -> 13 ;
14 [label="gini = 0.48\nsamples = 5\nvalue = [2, 3]"] ;
12 -> 14 ;
15 [label="X[11] <= -0.067\ngini = 0.444\nsamples = 12\nvalue = [8, 4]"] ;
11 -> 15 ;
16 [label="gini = 0.0\nsamples = 5\nvalue = [5, 0]"] ;
15 -> 16 ;
17 [label="gini = 0.49\nsamples = 7\nvalue = [3, 4]"] ;
15 -> 17 ;
18 [label="X[4] <= -1.433\ngini = 0.157\nsamples = 70\nvalue = [64, 6]"] ;
0 -> 18 [labeldistance=2.5, labelangle=-45, headlabel="False"] ;
19 [label="gini = 0.48\nsamples = 5\nvalue = [3, 2]"] ;
18 -> 19 ;
20 [label="X[2] <= -0.251\ngini = 0.116\nsamples = 65\nvalue = [61, 4]"] ;
18 -> 20 ;
21 [label="X[2] <= -0.806\ngini = 0.225\nsamples = 31\nvalue = [27, 4]"] ;
20 -> 21 ;
22 [label="gini = 0.0\nsamples = 17\nvalue = [17, 0]"] ;
21 -> 22 ;
23 [label="X[4] <= -0.536\ngini = 0.408\nsamples = 14\nvalue = [10, 4]"] ;
21 -> 23 ;
24 [label="gini = 0.0\nsamples = 7\nvalue = [7, 0]"] ;
23 -> 24 ;
25 [label="gini = 0.49\nsamples = 7\nvalue = [3, 4]"] ;
23 -> 25 ;
26 [label="gini = 0.0\nsamples = 34\nvalue = [34, 0]"] ;
20 -> 26 ;
}